{"_wandb": {"runtime": 6360}, "parameters/log_std": {"_type": "histogram", "values": [1.0, 0.0, 0.0, 0.0, 0.0, 0.0, 0.0, 0.0, 0.0, 0.0, 0.0, 0.0, 0.0, 0.0, 0.0, 0.0, 0.0, 0.0, 0.0, 0.0, 0.0, 0.0, 0.0, 0.0, 0.0, 0.0, 0.0, 0.0, 0.0, 0.0, 0.0, 0.0, 0.0, 0.0, 0.0, 0.0, 0.0, 1.0, 0.0, 0.0, 0.0, 0.0, 0.0, 0.0, 0.0, 0.0, 0.0, 0.0, 0.0, 0.0, 0.0, 0.0, 0.0, 0.0, 0.0, 0.0, 0.0, 0.0, 0.0, 0.0, 0.0, 0.0, 0.0, 2.0], "bins": [0.599422037601471, 0.6069516539573669, 0.6144812107086182, 0.6220108270645142, 0.6295404434204102, 0.6370700001716614, 0.6445996165275574, 0.6521291732788086, 0.6596587896347046, 0.6671884059906006, 0.6747179627418518, 0.6822475790977478, 0.6897771954536438, 0.697306752204895, 0.704836368560791, 0.712365984916687, 0.7198955416679382, 0.7274251580238342, 0.7349547147750854, 0.7424843311309814, 0.7500139474868774, 0.7575435638427734, 0.7650731205940247, 0.7726027369499207, 0.7801322937011719, 0.7876619100570679, 0.7951915264129639, 0.8027210831642151, 0.8102506995201111, 0.8177802562713623, 0.8253098726272583, 0.8328394889831543, 0.8403691053390503, 0.8478986620903015, 0.8554282784461975, 0.8629578351974487, 0.8704874515533447, 0.8780170679092407, 0.8855466246604919, 0.8930762410163879, 0.9006057977676392, 0.9081354141235352, 0.9156650304794312, 0.9231946468353271, 0.9307242035865784, 0.9382538199424744, 0.9457833766937256, 0.9533129930496216, 0.9608426094055176, 0.9683721661567688, 0.9759017825126648, 0.9834313988685608, 0.990960955619812, 0.998490571975708, 1.006020188331604, 1.0135498046875, 1.0210793018341064, 1.0286089181900024, 1.0361385345458984, 1.0436681509017944, 1.0511977672576904, 1.0587273836135864, 1.0662568807601929, 1.0737864971160889, 1.0813161134719849]}, "_timestamp": 1704582457.1389887, "parameters/mlp_extractor.policy_net.0.weight": {"_type": "histogram", "values": [1.0, 0.0, 1.0, 1.0, 1.0, 3.0, 11.0, 6.0, 14.0, 18.0, 15.0, 27.0, 40.0, 49.0, 50.0, 72.0, 82.0, 80.0, 100.0, 139.0, 142.0, 180.0, 193.0, 224.0, 241.0, 236.0, 263.0, 277.0, 267.0, 308.0, 308.0, 285.0, 284.0, 265.0, 240.0, 240.0, 221.0, 173.0, 150.0, 141.0, 141.0, 114.0, 120.0, 74.0, 87.0, 47.0, 53.0, 41.0, 23.0, 24.0, 19.0, 12.0, 12.0, 9.0, 5.0, 2.0, 9.0, 1.0, 0.0, 1.0, 1.0, 0.0, 0.0, 1.0], "bins": [-0.22963657975196838, -0.22204649448394775, -0.21445640921592712, -0.2068663239479065, -0.19927623867988586, -0.19168615341186523, -0.1840960681438446, -0.17650598287582397, -0.16891589760780334, -0.16132581233978271, -0.15373572707176208, -0.14614564180374146, -0.13855555653572083, -0.1309654712677002, -0.12337538599967957, -0.11578530073165894, -0.1081952154636383, -0.10060513019561768, -0.09301504492759705, -0.08542495965957642, -0.07783487439155579, -0.07024478912353516, -0.06265470385551453, -0.055064618587493896, -0.04747453331947327, -0.03988444805145264, -0.03229436278343201, -0.024704277515411377, -0.017114192247390747, -0.009524106979370117, -0.0019340217113494873, 0.005656063556671143, 0.013246148824691772, 0.020836234092712402, 0.028426319360733032, 0.03601640462875366, 0.04360648989677429, 0.05119657516479492, 0.05878666043281555, 0.06637674570083618, 0.07396683096885681, 0.08155691623687744, 0.08914700150489807, 0.0967370867729187, 0.10432717204093933, 0.11191725730895996, 0.11950734257698059, 0.12709742784500122, 0.13468751311302185, 0.14227759838104248, 0.1498676836490631, 0.15745776891708374, 0.16504785418510437, 0.172637939453125, 0.18022802472114563, 0.18781810998916626, 0.1954081952571869, 0.20299828052520752, 0.21058836579322815, 0.21817845106124878, 0.2257685363292694, 0.23335862159729004, 0.24094870686531067, 0.2485387921333313, 0.25612887740135193]}, "parameters/mlp_extractor.policy_net.0.bias": {"_type": "histogram", "values": [1.0, 0.0, 0.0, 1.0, 2.0, 2.0, 3.0, 2.0, 1.0, 2.0, 4.0, 7.0, 6.0, 9.0, 10.0, 13.0, 8.0, 13.0, 23.0, 22.0, 11.0, 34.0, 22.0, 20.0, 24.0, 25.0, 20.0, 20.0, 18.0, 14.0, 19.0, 14.0, 22.0, 15.0, 19.0, 15.0, 12.0, 15.0, 12.0, 3.0, 6.0, 4.0, 3.0, 2.0, 2.0, 5.0, 1.0, 1.0, 3.0, 0.0, 0.0, 0.0, 0.0, 0.0, 0.0, 1.0, 0.0, 0.0, 0.0, 0.0, 0.0, 0.0, 0.0, 1.0], "bins": [-0.045309629291296005, -0.04355328902602196, -0.04179694503545761, -0.04004060477018356, -0.03828426077961922, -0.03652792051434517, -0.03477157652378082, -0.033015236258506775, -0.03125889599323273, -0.02950255200266838, -0.027746209874749184, -0.025989867746829987, -0.02423352748155594, -0.02247718535363674, -0.020720843225717545, -0.018964501097798347, -0.01720815896987915, -0.015451816841959953, -0.013695474714040756, -0.011939134448766708, -0.010182790458202362, -0.008426450192928314, -0.006670106202363968, -0.00491376593708992, -0.003157425671815872, -0.0014010816812515259, 0.00035525858402252197, 0.0021116025745868683, 0.003867942839860916, 0.0056242868304252625, 0.00738062709569931, 0.009136971086263657, 0.010893307626247406, 0.012649647891521454, 0.0144059918820858, 0.016162332147359848, 0.017918676137924194, 0.019675016403198242, 0.02143136039376259, 0.023187700659036636, 0.024944044649600983, 0.02670038491487503, 0.02845672518014908, 0.030213069170713425, 0.03196940943598747, 0.03372575342655182, 0.03548209369182587, 0.037238433957099915, 0.03899477794766426, 0.04075112193822861, 0.042507462203502655, 0.0442638024687767, 0.04602014645934105, 0.0477764867246151, 0.04953283071517944, 0.05128917098045349, 0.05304551124572754, 0.054801855236291885, 0.05655819922685623, 0.05831453949213028, 0.06007087975740433, 0.061827223747968674, 0.06358356773853302, 0.06533990800380707, 0.06709624826908112]}, "parameters/mlp_extractor.policy_net.2.weight": {"_type": "histogram", "values": [2.0, 2.0, 2.0, 6.0, 7.0, 8.0, 10.0, 29.0, 45.0, 63.0, 103.0, 193.0, 278.0, 387.0, 562.0, 817.0, 1195.0, 1618.0, 2124.0, 2797.0, 3764.0, 4668.0, 5759.0, 6931.0, 8404.0, 9812.0, 11021.0, 12061.0, 13244.0, 14253.0, 14897.0, 14976.0, 15193.0, 14993.0, 14215.0, 13356.0, 12452.0, 11189.0, 9630.0, 8434.0, 7239.0, 5887.0, 4690.0, 3834.0, 3025.0, 2367.0, 1765.0, 1235.0, 862.0, 602.0, 434.0, 254.0, 170.0, 114.0, 65.0, 34.0, 26.0, 18.0, 7.0, 7.0, 8.0, 0.0, 0.0, 1.0], "bins": [-0.2919013500213623, -0.2827945053577423, -0.2736876606941223, -0.2645808160305023, -0.2554739713668823, -0.24636712670326233, -0.23726028203964233, -0.22815343737602234, -0.21904659271240234, -0.20993974804878235, -0.20083290338516235, -0.19172605872154236, -0.18261921405792236, -0.17351236939430237, -0.16440552473068237, -0.15529868006706238, -0.14619183540344238, -0.1370849907398224, -0.1279781460762024, -0.1188713014125824, -0.1097644567489624, -0.10065761208534241, -0.09155076742172241, -0.08244392275810242, -0.07333707809448242, -0.06423023343086243, -0.05512338876724243, -0.046016544103622437, -0.03690969944000244, -0.027802854776382446, -0.01869601011276245, -0.009589165449142456, -0.00048235058784484863, 0.008624494075775146, 0.01773133873939514, 0.026838183403015137, 0.03594502806663513, 0.04505187273025513, 0.05415871739387512, 0.06326556205749512, 0.07237240672111511, 0.08147925138473511, 0.0905860960483551, 0.0996929407119751, 0.10879978537559509, 0.11790663003921509, 0.12701347470283508, 0.13612031936645508, 0.14522716403007507, 0.15433400869369507, 0.16344085335731506, 0.17254769802093506, 0.18165454268455505, 0.19076138734817505, 0.19986823201179504, 0.20897507667541504, 0.21808192133903503, 0.22718876600265503, 0.23629561066627502, 0.24540245532989502, 0.254509299993515, 0.263616144657135, 0.272722989320755, 0.281829833984375, 0.290936678647995]}, "parameters/mlp_extractor.policy_net.2.bias": {"_type": "histogram", "values": [2.0, 0.0, 0.0, 0.0, 0.0, 0.0, 0.0, 3.0, 1.0, 0.0, 2.0, 1.0, 2.0, 2.0, 4.0, 0.0, 7.0, 10.0, 11.0, 7.0, 6.0, 12.0, 15.0, 14.0, 12.0, 15.0, 21.0, 22.0, 12.0, 22.0, 19.0, 20.0, 13.0, 20.0, 29.0, 20.0, 14.0, 14.0, 17.0, 17.0, 16.0, 14.0, 10.0, 7.0, 12.0, 13.0, 9.0, 9.0, 5.0, 4.0, 6.0, 4.0, 4.0, 0.0, 2.0, 0.0, 3.0, 0.0, 2.0, 1.0, 0.0, 1.0, 1.0, 3.0], "bins": [-0.03997444733977318, -0.03877342864871025, -0.03757241368293762, -0.036371394991874695, -0.035170380026102066, -0.03396936133503914, -0.03276834636926651, -0.03156732767820358, -0.030366310849785805, -0.029165294021368027, -0.02796427719295025, -0.02676326036453247, -0.025562241673469543, -0.024361226707696915, -0.023160208016633987, -0.02195919118821621, -0.02075817435979843, -0.019557157531380653, -0.018356140702962875, -0.017155123874545097, -0.01595410704612732, -0.014753088355064392, -0.013552071526646614, -0.012351054698228836, -0.011150037869811058, -0.00994902104139328, -0.008748004212975502, -0.007546987384557724, -0.006345968693494797, -0.005144953727722168, -0.003943935036659241, -0.002742920070886612, -0.0015419051051139832, -0.0003408864140510559, 0.0008601285517215729, 0.0020611472427845, 0.003262162208557129, 0.004463180899620056, 0.005664197728037834, 0.006865214556455612, 0.00806623138487339, 0.009267248213291168, 0.010468265041708946, 0.011669281870126724, 0.012870300561189651, 0.01407131738960743, 0.015272334218025208, 0.016473351046442986, 0.017674367874860764, 0.01887538470327854, 0.02007640153169632, 0.021277420222759247, 0.022478435188531876, 0.023679453879594803, 0.02488047070801258, 0.02608148753643036, 0.027282504364848137, 0.028483521193265915, 0.029684538021683693, 0.03088555485010147, 0.0320865735411644, 0.03328758850693703, 0.034488607197999954, 0.03568962216377258, 0.03689064085483551]}, "parameters/mlp_extractor.policy_net.4.weight": {"_type": "histogram", "values": [2.0, 5.0, 6.0, 7.0, 8.0, 17.0, 34.0, 45.0, 73.0, 104.0, 125.0, 182.0, 307.0, 442.0, 522.0, 744.0, 983.0, 1279.0, 1570.0, 2003.0, 2399.0, 3047.0, 3454.0, 4018.0, 4671.0, 5017.0, 5670.0, 6041.0, 6347.0, 6754.0, 6904.0, 6917.0, 6931.0, 6665.0, 6394.0, 5915.0, 5482.0, 5049.0, 4489.0, 3856.0, 3304.0, 2812.0, 2393.0, 1887.0, 1515.0, 1239.0, 945.0, 721.0, 554.0, 395.0, 265.0, 194.0, 135.0, 91.0, 57.0, 32.0, 20.0, 17.0, 6.0, 7.0, 4.0, 0.0, 0.0, 1.0], "bins": [-0.26109442114830017, -0.2527778446674347, -0.2444612681865692, -0.23614469170570374, -0.22782813012599945, -0.21951155364513397, -0.2111949771642685, -0.20287840068340302, -0.19456183910369873, -0.18624526262283325, -0.17792868614196777, -0.1696121096611023, -0.16129553318023682, -0.15297895669937134, -0.14466238021850586, -0.13634581863880157, -0.1280292421579361, -0.11971266567707062, -0.11139608919620514, -0.10307952761650085, -0.09476295113563538, -0.0864463746547699, -0.07812979817390442, -0.06981322169303894, -0.06149664521217346, -0.05318008363246918, -0.0448635071516037, -0.03654693067073822, -0.02823035418987274, -0.019913777709007263, -0.011597216129302979, -0.0032806396484375, 0.0050359368324279785, 0.013352513313293457, 0.021669089794158936, 0.02998565137386322, 0.0383022278547287, 0.04661880433559418, 0.054935380816459656, 0.06325195729732513, 0.07156851887702942, 0.0798850953578949, 0.08820167183876038, 0.09651824831962585, 0.10483482480049133, 0.11315140128135681, 0.1214679628610611, 0.12978453934192657, 0.13810111582279205, 0.14641769230365753, 0.15473425388336182, 0.1630508303642273, 0.17136740684509277, 0.17968398332595825, 0.18800055980682373, 0.1963171362876892, 0.2046337127685547, 0.21295027434825897, 0.22126685082912445, 0.22958342730998993, 0.2379000037908554, 0.2462165653705597, 0.25453314185142517, 0.26284971833229065, 0.27116629481315613]}, "parameters/mlp_extractor.policy_net.4.bias": {"_type": "histogram", "values": [1.0, 0.0, 0.0, 0.0, 0.0, 1.0, 0.0, 1.0, 1.0, 0.0, 3.0, 1.0, 1.0, 2.0, 5.0, 2.0, 3.0, 2.0, 7.0, 2.0, 3.0, 8.0, 13.0, 10.0, 8.0, 7.0, 10.0, 14.0, 9.0, 15.0, 7.0, 13.0, 15.0, 10.0, 9.0, 16.0, 9.0, 9.0, 9.0, 2.0, 5.0, 4.0, 2.0, 2.0, 1.0, 2.0, 4.0, 1.0, 4.0, 0.0, 0.0, 1.0, 0.0, 1.0, 0.0, 0.0, 0.0, 0.0, 0.0, 0.0, 0.0, 0.0, 0.0, 1.0], "bins": [-0.04190314933657646, -0.040498778223991394, -0.039094407111406326, -0.03769003599882126, -0.03628566488623619, -0.03488129377365112, -0.033476926386356354, -0.032072555273771286, -0.030668184161186218, -0.02926381304860115, -0.027859441936016083, -0.026455070823431015, -0.025050699710845947, -0.02364632859826088, -0.02224195934832096, -0.020837588235735893, -0.019433217123150826, -0.018028846010565758, -0.01662447489798069, -0.015220105648040771, -0.013815734535455704, -0.012411363422870636, -0.011006992310285568, -0.0096026211977005, -0.008198250085115433, -0.006793878972530365, -0.005389507859945297, -0.003985140472650528, -0.00258076936006546, -0.0011763982474803925, 0.0002279728651046753, 0.001632343977689743, 0.003036715090274811, 0.0044410862028598785, 0.005845457315444946, 0.007249828428030014, 0.008654199540615082, 0.01005857065320015, 0.011462938040494919, 0.012867309153079987, 0.014271680265665054, 0.015676051378250122, 0.01708042249083519, 0.018484793603420258, 0.019889164716005325, 0.021293535828590393, 0.02269790507853031, 0.02410227619111538, 0.025506647303700447, 0.026911018416285515, 0.028315389528870583, 0.0297197587788105, 0.03112412989139557, 0.03252850100398064, 0.033932872116565704, 0.03533724322915077, 0.03674161434173584, 0.03814598545432091, 0.039550356566905975, 0.040954723954200745, 0.04235909506678581, 0.04376346617937088, 0.04516783729195595, 0.046572208404541016, 0.04797657951712608]}, "parameters/mlp_extractor.policy_net.6.weight": {"_type": "histogram", "values": [1.0, 0.0, 1.0, 2.0, 1.0, 5.0, 7.0, 8.0, 13.0, 19.0, 14.0, 30.0, 65.0, 74.0, 109.0, 163.0, 207.0, 250.0, 340.0, 401.0, 554.0, 618.0, 750.0, 852.0, 986.0, 1156.0, 1223.0, 1311.0, 1454.0, 1449.0, 1584.0, 1718.0, 1682.0, 1659.0, 1642.0, 1611.0, 1509.0, 1374.0, 1232.0, 1136.0, 981.0, 910.0, 744.0, 652.0, 485.0, 434.0, 314.0, 287.0, 182.0, 178.0, 120.0, 84.0, 54.0, 37.0, 42.0, 18.0, 13.0, 8.0, 4.0, 2.0, 3.0, 4.0, 1.0, 1.0], "bins": [-0.3699488043785095, -0.35857897996902466, -0.3472091555595398, -0.33583933115005493, -0.32446950674057007, -0.3130996823310852, -0.30172985792160034, -0.2903600335121155, -0.2789902091026306, -0.26762038469314575, -0.2562505602836609, -0.24488075077533722, -0.23351094126701355, -0.2221411168575287, -0.21077129244804382, -0.19940146803855896, -0.1880316436290741, -0.17666181921958923, -0.16529199481010437, -0.1539221704006195, -0.14255234599113464, -0.13118253648281097, -0.11981269717216492, -0.10844287276268005, -0.09707307815551758, -0.08570325374603271, -0.07433342933654785, -0.06296360492706299, -0.051593780517578125, -0.04022395610809326, -0.0288541316986084, -0.017484307289123535, -0.006114482879638672, 0.005255341529846191, 0.016625165939331055, 0.027994990348815918, 0.03936481475830078, 0.050734639167785645, 0.06210446357727051, 0.07347428798675537, 0.08484411239624023, 0.09621390700340271, 0.10758373141288757, 0.11895357072353363, 0.1303233802318573, 0.14169320464134216, 0.15306302905082703, 0.1644328534603119, 0.17580267786979675, 0.18717250227928162, 0.19854232668876648, 0.20991215109825134, 0.2212819755077362, 0.23265178501605988, 0.24402160942554474, 0.2553914189338684, 0.26676124334335327, 0.27813106775283813, 0.289500892162323, 0.30087071657180786, 0.3122405409812927, 0.3236103653907776, 0.33498018980026245, 0.3463500142097473, 0.3577198386192322]}, "parameters/mlp_extractor.policy_net.6.bias": {"_type": "histogram", "values": [2.0, 0.0, 0.0, 0.0, 0.0, 0.0, 0.0, 0.0, 0.0, 1.0, 0.0, 0.0, 0.0, 1.0, 1.0, 2.0, 1.0, 1.0, 1.0, 2.0, 0.0, 0.0, 2.0, 3.0, 2.0, 5.0, 2.0, 3.0, 5.0, 2.0, 5.0, 4.0, 2.0, 5.0, 13.0, 5.0, 5.0, 7.0, 3.0, 2.0, 6.0, 4.0, 2.0, 2.0, 2.0, 6.0, 2.0, 3.0, 1.0, 0.0, 3.0, 2.0, 0.0, 2.0, 0.0, 2.0, 1.0, 0.0, 0.0, 1.0, 1.0, 0.0, 0.0, 1.0], "bins": [-0.04225132241845131, -0.0410771407186985, -0.03990296274423599, -0.038728781044483185, -0.037554603070020676, -0.03638042137026787, -0.03520624339580536, -0.03403206169605255, -0.032857879996299744, -0.031683702021837234, -0.030509522184729576, -0.029335342347621918, -0.02816116064786911, -0.0269869826734066, -0.025812800973653793, -0.024638621136546135, -0.023464441299438477, -0.022290261462330818, -0.02111608162522316, -0.0199419017881155, -0.018767721951007843, -0.017593540251255035, -0.016419360414147377, -0.015245180577039719, -0.01407100073993206, -0.012896820902824402, -0.011722641065716743, -0.010548461228609085, -0.009374279528856277, -0.008200101554393768, -0.007025919854640961, -0.0058517418801784515, -0.0046775564551353455, -0.003503374755382538, -0.0023291967809200287, -0.001155015081167221, 1.9162893295288086e-05, 0.0011933445930480957, 0.002367524430155754, 0.0035417042672634125, 0.004715884104371071, 0.005890063941478729, 0.007064243778586388, 0.008238423615694046, 0.009412605315446854, 0.010586785152554512, 0.01176096498966217, 0.012935144826769829, 0.014109324663877487, 0.015283504500985146, 0.016457684338092804, 0.01763186603784561, 0.01880604401230812, 0.01998022571206093, 0.021154405549168587, 0.022328585386276245, 0.023502765223383904, 0.024676945060491562, 0.02585112489759922, 0.02702530473470688, 0.028199486434459686, 0.029373666271567345, 0.030547846108675003, 0.03172202408313751, 0.03289620578289032]}, "parameters/mlp_extractor.value_net.0.weight": {"_type": "histogram", "values": [1.0, 0.0, 0.0, 0.0, 0.0, 0.0, 0.0, 3.0, 1.0, 5.0, 7.0, 3.0, 11.0, 10.0, 15.0, 26.0, 25.0, 38.0, 36.0, 54.0, 72.0, 95.0, 102.0, 132.0, 166.0, 188.0, 222.0, 224.0, 254.0, 286.0, 291.0, 327.0, 300.0, 338.0, 349.0, 316.0, 311.0, 261.0, 250.0, 227.0, 189.0, 199.0, 174.0, 133.0, 108.0, 86.0, 64.0, 62.0, 40.0, 37.0, 35.0, 19.0, 14.0, 12.0, 7.0, 7.0, 5.0, 3.0, 1.0, 0.0, 1.0, 0.0, 1.0, 1.0], "bins": [-0.2861826717853546, -0.2776501178741455, -0.2691175639629364, -0.2605850100517273, -0.2520524561405182, -0.24351990222930908, -0.23498736321926117, -0.22645480930805206, -0.21792225539684296, -0.20938970148563385, -0.20085714757442474, -0.19232460856437683, -0.18379205465316772, -0.17525950074195862, -0.1667269468307495, -0.1581943929195404, -0.1496618390083313, -0.1411292850971222, -0.13259673118591309, -0.12406417727470398, -0.11553162336349487, -0.10699908435344696, -0.09846653044223785, -0.08993397653102875, -0.08140142261981964, -0.07286886870861053, -0.06433631479740143, -0.05580376088619232, -0.04727122187614441, -0.0387386679649353, -0.030206114053726196, -0.02167356014251709, -0.013141006231307983, -0.004608452320098877, 0.0039241015911102295, 0.012456655502319336, 0.020989209413528442, 0.029521748423576355, 0.03805430233478546, 0.04658685624599457, 0.055119410157203674, 0.06365196406841278, 0.07218451797962189, 0.080717071890831, 0.0892496109008789, 0.09778216481208801, 0.10631471872329712, 0.11484727263450623, 0.12337982654571533, 0.13191238045692444, 0.14044493436813354, 0.14897748827934265, 0.15751004219055176, 0.16604259610176086, 0.17457513511180878, 0.18310768902301788, 0.191640242934227, 0.2001727968454361, 0.2087053507566452, 0.21723788976669312, 0.22577044367790222, 0.23430299758911133, 0.24283555150032043, 0.25136810541152954, 0.25990065932273865]}, "parameters/mlp_extractor.value_net.0.bias": {"_type": "histogram", "values": [1.0, 1.0, 3.0, 14.0, 19.0, 25.0, 35.0, 28.0, 15.0, 18.0, 9.0, 12.0, 0.0, 6.0, 8.0, 4.0, 9.0, 5.0, 3.0, 1.0, 3.0, 4.0, 2.0, 3.0, 3.0, 5.0, 2.0, 0.0, 2.0, 4.0, 1.0, 4.0, 3.0, 2.0, 1.0, 1.0, 4.0, 2.0, 4.0, 3.0, 2.0, 5.0, 1.0, 0.0, 4.0, 4.0, 2.0, 3.0, 6.0, 5.0, 3.0, 6.0, 5.0, 8.0, 13.0, 13.0, 21.0, 20.0, 43.0, 32.0, 25.0, 14.0, 5.0, 3.0], "bins": [-0.040320321917533875, -0.0390937477350235, -0.03786717727780342, -0.036640606820583344, -0.03541403263807297, -0.03418745845556259, -0.032960887998342514, -0.031734317541122437, -0.03050774335861206, -0.029281171038746834, -0.028054598718881607, -0.02682802639901638, -0.025601454079151154, -0.024374881759285927, -0.0231483094394207, -0.021921737119555473, -0.020695164799690247, -0.01946859247982502, -0.018242020159959793, -0.017015447840094566, -0.01578887552022934, -0.014562303200364113, -0.013335730880498886, -0.01210915856063366, -0.010882586240768433, -0.009656013920903206, -0.008429441601037979, -0.007202871143817902, -0.005976296961307526, -0.00474972277879715, -0.003523152321577072, -0.0022965818643569946, -0.0010700039565563202, 0.00015657022595405579, 0.0013831406831741333, 0.002609711140394211, 0.003836285322904587, 0.005062859505414963, 0.00628942996263504, 0.007516002282500267, 0.008742574602365494, 0.00996914692223072, 0.011195719242095947, 0.012422291561961174, 0.0136488638818264, 0.014875436201691628, 0.016102008521556854, 0.01732858084142208, 0.018555153161287308, 0.019781725481152534, 0.02100829780101776, 0.022234870120882988, 0.023461442440748215, 0.02468801476061344, 0.025914587080478668, 0.027141159400343895, 0.02836773172020912, 0.02959430404007435, 0.030820876359939575, 0.03204745054244995, 0.03327402099967003, 0.034500591456890106, 0.03572716563940048, 0.03695373982191086, 0.038180310279130936]}, "parameters/mlp_extractor.value_net.2.weight": {"_type": "histogram", "values": [1.0, 1.0, 3.0, 8.0, 15.0, 29.0, 36.0, 62.0, 140.0, 172.0, 253.0, 426.0, 651.0, 858.0, 1134.0, 1688.0, 2325.0, 2973.0, 3891.0, 4859.0, 6088.0, 7318.0, 8675.0, 9776.0, 11210.0, 12595.0, 13513.0, 14546.0, 15273.0, 15361.0, 15283.0, 14832.0, 14140.0, 13163.0, 12186.0, 10874.0, 9518.0, 8273.0, 6814.0, 5528.0, 4473.0, 3487.0, 2760.0, 1984.0, 1547.0, 1111.0, 778.0, 524.0, 368.0, 227.0, 159.0, 82.0, 66.0, 43.0, 18.0, 14.0, 5.0, 1.0, 3.0, 1.0, 1.0, 0.0, 0.0, 1.0], "bins": [-0.28184476494789124, -0.27239832282066345, -0.2629518508911133, -0.2535054087638855, -0.24405896663665771, -0.23461250960826874, -0.22516605257987976, -0.21571961045265198, -0.206273153424263, -0.19682669639587402, -0.18738025426864624, -0.17793379724025726, -0.1684873402118683, -0.1590408980846405, -0.14959444105625153, -0.14014799892902374, -0.13070154190063477, -0.12125508487224579, -0.111808642745018, -0.10236218571662903, -0.09291574358940125, -0.08346928656101227, -0.07402282953262329, -0.06457638740539551, -0.05512993037700653, -0.045683473348617554, -0.03623703122138977, -0.026790589094161987, -0.017344117164611816, -0.007897675037384033, 0.00154876708984375, 0.010995239019393921, 0.020441681146621704, 0.029888123273849487, 0.03933459520339966, 0.04878103733062744, 0.058227479457855225, 0.0676739513874054, 0.07712039351463318, 0.08656683564186096, 0.09601329267024994, 0.10545974969863892, 0.1149061918258667, 0.12435264885425568, 0.13379910588264465, 0.14324554800987244, 0.1526920050382614, 0.1621384471654892, 0.17158490419387817, 0.18103136122226715, 0.19047780334949493, 0.1999242603778839, 0.2093707025051117, 0.21881715953350067, 0.22826361656188965, 0.23771005868911743, 0.2471565157175064, 0.2566029727458954, 0.26604941487312317, 0.27549588680267334, 0.2849423289299011, 0.2943887710571289, 0.3038352131843567, 0.31328168511390686, 0.32272812724113464]}, "parameters/mlp_extractor.value_net.2.bias": {"_type": "histogram", "values": [3.0, 6.0, 6.0, 14.0, 15.0, 29.0, 27.0, 32.0, 20.0, 25.0, 16.0, 4.0, 8.0, 2.0, 5.0, 3.0, 3.0, 6.0, 3.0, 3.0, 1.0, 1.0, 2.0, 3.0, 2.0, 2.0, 2.0, 1.0, 3.0, 4.0, 6.0, 4.0, 0.0, 6.0, 1.0, 2.0, 2.0, 3.0, 0.0, 4.0, 3.0, 4.0, 2.0, 4.0, 1.0, 6.0, 3.0, 5.0, 7.0, 3.0, 9.0, 7.0, 15.0, 16.0, 23.0, 35.0, 26.0, 21.0, 13.0, 18.0, 5.0, 4.0, 1.0, 2.0], "bins": [-0.0347306989133358, -0.033638060092926025, -0.03254542127251625, -0.031452782452106476, -0.030360141769051552, -0.029267502948641777, -0.028174864128232002, -0.027082225307822227, -0.025989584624767303, -0.02489694580435753, -0.023804306983947754, -0.02271166816353798, -0.021619029343128204, -0.02052639052271843, -0.019433751702308655, -0.01834111101925373, -0.017248472198843956, -0.01615583337843418, -0.015063194558024406, -0.013970553874969482, -0.012877915054559708, -0.011785276234149933, -0.010692637413740158, -0.009599998593330383, -0.008507359772920609, -0.0074147190898656845, -0.00632208026945591, -0.005229441449046135, -0.00413680262863636, -0.003044161945581436, -0.0019515231251716614, -0.0008588843047618866, 0.00023375451564788818, 0.001326393336057663, 0.0024190321564674377, 0.0035116709768772125, 0.0046043116599321365, 0.005696950480341911, 0.006789589300751686, 0.007882228121161461, 0.008974868804216385, 0.01006750762462616, 0.011160146445035934, 0.01225278526544571, 0.013345424085855484, 0.014438062906265259, 0.015530703589320183, 0.016623342409729958, 0.017715981230139732, 0.018808620050549507, 0.01990126073360443, 0.020993899554014206, 0.02208653837442398, 0.023179177194833755, 0.02427181601524353, 0.025364454835653305, 0.02645709365606308, 0.027549734339118004, 0.02864237315952778, 0.029735011979937553, 0.030827650800347328, 0.03192029148340225, 0.03301293030381203, 0.0341055691242218, 0.03519820794463158]}, "parameters/mlp_extractor.value_net.4.weight": {"_type": "histogram", "values": [1.0, 0.0, 1.0, 2.0, 6.0, 2.0, 11.0, 14.0, 23.0, 45.0, 69.0, 98.0, 145.0, 229.0, 336.0, 436.0, 642.0, 825.0, 1077.0, 1346.0, 1785.0, 2237.0, 2716.0, 3271.0, 3645.0, 4368.0, 4799.0, 5549.0, 6066.0, 6341.0, 6819.0, 7005.0, 7214.0, 7141.0, 7000.0, 6603.0, 6216.0, 5780.0, 5098.0, 4713.0, 4022.0, 3539.0, 2995.0, 2493.0, 1979.0, 1635.0, 1342.0, 969.0, 703.0, 518.0, 384.0, 291.0, 172.0, 132.0, 85.0, 49.0, 38.0, 21.0, 17.0, 6.0, 2.0, 3.0, 2.0, 1.0], "bins": [-0.2892812490463257, -0.2804509103298187, -0.2716205418109894, -0.2627902030944824, -0.2539598345756531, -0.24512948095798492, -0.23629912734031677, -0.22746878862380981, -0.21863842010498047, -0.2098080813884735, -0.20097771286964417, -0.1921473741531372, -0.18331702053546906, -0.1744866669178009, -0.16565631330013275, -0.1568259596824646, -0.14799560606479645, -0.1391652524471283, -0.13033489882946014, -0.12150454521179199, -0.11267419159412384, -0.10384383797645569, -0.09501348435878754, -0.08618313074111938, -0.07735279202461243, -0.06852243840694427, -0.05969208478927612, -0.05086173117160797, -0.04203137755393982, -0.033201009035110474, -0.024370670318603516, -0.01554030179977417, -0.006709963083267212, 0.002120375633239746, 0.010950744152069092, 0.01978108286857605, 0.028611451387405396, 0.03744180500507355, 0.0462721586227417, 0.05510251224040985, 0.063932865858078, 0.07276320457458496, 0.08159355819225311, 0.09042391180992126, 0.09925426542758942, 0.10808461904525757, 0.11691497266292572, 0.12574532628059387, 0.13457567989826202, 0.14340603351593018, 0.15223638713359833, 0.16106674075126648, 0.16989709436893463, 0.17872744798660278, 0.18755778670310974, 0.1963881552219391, 0.20521849393844604, 0.2140488624572754, 0.22287920117378235, 0.2317095547914505, 0.24053990840911865, 0.2493702620267868, 0.25820061564445496, 0.2670309841632843, 0.27586132287979126]}, "parameters/mlp_extractor.value_net.4.bias": {"_type": "histogram", "values": [1.0, 1.0, 1.0, 2.0, 1.0, 6.0, 8.0, 7.0, 3.0, 7.0, 19.0, 15.0, 18.0, 14.0, 11.0, 4.0, 5.0, 3.0, 2.0, 2.0, 1.0, 1.0, 1.0, 0.0, 0.0, 0.0, 0.0, 0.0, 0.0, 1.0, 1.0, 1.0, 0.0, 1.0, 3.0, 0.0, 0.0, 0.0, 1.0, 0.0, 1.0, 2.0, 2.0, 0.0, 3.0, 0.0, 1.0, 0.0, 0.0, 3.0, 2.0, 5.0, 4.0, 23.0, 15.0, 11.0, 9.0, 10.0, 4.0, 6.0, 5.0, 5.0, 1.0, 3.0], "bins": [-0.030579065904021263, -0.02966034784913063, -0.028741629794239998, -0.027822911739349365, -0.026904195547103882, -0.0259854756295681, -0.025066759437322617, -0.024148041382431984, -0.02322932332754135, -0.02231060527265072, -0.021391887217760086, -0.020473171025514603, -0.01955445110797882, -0.018635734915733337, -0.017717016860842705, -0.016798298805952072, -0.01587958075106144, -0.014960862696170807, -0.014042144641280174, -0.013123426586389542, -0.012204708531498909, -0.011285992339253426, -0.010367274284362793, -0.00944855622947216, -0.008529838174581528, -0.007611120119690895, -0.0066924020648002625, -0.00577368400990963, -0.004854967817664146, -0.003936249762773514, -0.003017531707882881, -0.0020988136529922485, -0.0011800937354564667, -0.00026137568056583405, 0.0006573423743247986, 0.0015760604292154312, 0.002494778484106064, 0.0034134946763515472, 0.00433221273124218, 0.0052509307861328125, 0.006169648841023445, 0.007088366895914078, 0.00800708495080471, 0.008925803005695343, 0.009844519197940826, 0.010763237252831459, 0.011681955307722092, 0.012600673362612724, 0.013519391417503357, 0.01443810947239399, 0.015356827527284622, 0.016275543719530106, 0.017194263637065887, 0.01811297982931137, 0.019031697884202003, 0.019950415939092636, 0.02086913399398327, 0.0217878520488739, 0.022706570103764534, 0.023625288158655167, 0.02454400435090065, 0.025462722405791283, 0.026381440460681915, 0.027300158515572548, 0.02821887657046318]}, "parameters/mlp_extractor.value_net.6.weight": {"_type": "histogram", "values": [2.0, 2.0, 2.0, 5.0, 6.0, 6.0, 9.0, 21.0, 24.0, 43.0, 50.0, 87.0, 98.0, 171.0, 187.0, 277.0, 321.0, 400.0, 528.0, 659.0, 770.0, 893.0, 1001.0, 1112.0, 1249.0, 1402.0, 1536.0, 1578.0, 1681.0, 1741.0, 1747.0, 1638.0, 1655.0, 1554.0, 1494.0, 1370.0, 1328.0, 1103.0, 1003.0, 813.0, 682.0, 588.0, 447.0, 360.0, 276.0, 220.0, 178.0, 115.0, 101.0, 75.0, 63.0, 34.0, 25.0, 13.0, 12.0, 5.0, 3.0, 1.0, 1.0, 1.0, 1.0, 0.0, 0.0, 1.0], "bins": [-0.3777787983417511, -0.36532241106033325, -0.3528660237789154, -0.34040963649749756, -0.3279532194137573, -0.3154968321323395, -0.30304044485092163, -0.2905840575695038, -0.27812767028808594, -0.2656712532043457, -0.25321486592292786, -0.24075847864151, -0.22830209136009216, -0.21584568917751312, -0.20338930189609528, -0.19093289971351624, -0.1784765124320984, -0.16602012515068054, -0.1535637229681015, -0.14110733568668365, -0.12865093350410461, -0.11619454622268677, -0.10373815894126892, -0.09128177165985107, -0.07882538437843323, -0.066368967294693, -0.053912580013275146, -0.0414561927318573, -0.028999805450439453, -0.016543418169021606, -0.004087001085281372, 0.008369386196136475, 0.02082580327987671, 0.033282190561294556, 0.0457385778427124, 0.05819499492645264, 0.07065138220787048, 0.08310776948928833, 0.09556415677070618, 0.10802054405212402, 0.12047696113586426, 0.1329333484172821, 0.14538973569869995, 0.1578461229801178, 0.17030251026153564, 0.18275891244411469, 0.19521529972553253, 0.20767170190811157, 0.22012808918952942, 0.23258447647094727, 0.2450408786535263, 0.25749725103378296, 0.2699536681175232, 0.28241005539894104, 0.2948664426803589, 0.30732282996177673, 0.3197792172431946, 0.3322356343269348, 0.34469202160835266, 0.3571484088897705, 0.36960479617118835, 0.3820611834526062, 0.39451760053634644, 0.4069739878177643, 0.41943037509918213]}, "parameters/mlp_extractor.value_net.6.bias": {"_type": "histogram", "values": [1.0, 0.0, 0.0, 0.0, 1.0, 0.0, 0.0, 0.0, 1.0, 0.0, 1.0, 0.0, 3.0, 4.0, 8.0, 7.0, 15.0, 16.0, 11.0, 3.0, 1.0, 0.0, 0.0, 0.0, 0.0, 0.0, 0.0, 0.0, 0.0, 0.0, 0.0, 0.0, 0.0, 0.0, 0.0, 0.0, 0.0, 0.0, 0.0, 0.0, 0.0, 0.0, 0.0, 0.0, 0.0, 0.0, 3.0, 11.0, 12.0, 6.0, 3.0, 9.0, 3.0, 1.0, 1.0, 1.0, 0.0, 0.0, 3.0, 1.0, 1.0, 0.0, 0.0, 1.0], "bins": [-0.03876715153455734, -0.0375915952026844, -0.03641603887081146, -0.035240478813648224, -0.034064922481775284, -0.032889366149902344, -0.031713806092739105, -0.030538249760866165, -0.029362693428993225, -0.028187137097120285, -0.027011578902602196, -0.025836020708084106, -0.024660464376211166, -0.023484908044338226, -0.022309349849820137, -0.021133791655302048, -0.019958235323429108, -0.018782678991556168, -0.01760712079703808, -0.01643156260251999, -0.015256006270647049, -0.014080449938774109, -0.01290489174425602, -0.01172933354973793, -0.01055377721786499, -0.00937822088599205, -0.008202662691473961, -0.007027104496955872, -0.0058515481650829315, -0.0046759918332099915, -0.003500431776046753, -0.002324875444173813, -0.0011493191123008728, 2.623721957206726e-05, 0.0012017935514450073, 0.002377353608608246, 0.003552909940481186, 0.004728466272354126, 0.005904024466872215, 0.0070795826613903046, 0.008255138993263245, 0.009430695325136185, 0.010606253519654274, 0.011781811714172363, 0.012957368046045303, 0.014132924377918243, 0.015308482572436333, 0.016484040766954422, 0.017659597098827362, 0.018835153430700302, 0.02001071162521839, 0.02118626981973648, 0.02236182615160942, 0.02353738248348236, 0.02471294067800045, 0.02588849887251854, 0.02706405520439148, 0.02823961153626442, 0.02941516973078251, 0.030590727925300598, 0.03176628425717354, 0.03294184058904648, 0.03411740064620972, 0.03529295697808266, 0.0364685133099556]}, "parameters/action_net.weight": {"_type": "histogram", "values": [2.0, 0.0, 1.0, 1.0, 1.0, 0.0, 2.0, 2.0, 5.0, 4.0, 6.0, 6.0, 7.0, 3.0, 7.0, 2.0, 3.0, 12.0, 4.0, 12.0, 11.0, 17.0, 13.0, 15.0, 25.0, 22.0, 15.0, 17.0, 24.0, 21.0, 24.0, 21.0, 19.0, 25.0, 22.0, 22.0, 17.0, 20.0, 10.0, 15.0, 10.0, 10.0, 6.0, 5.0, 2.0, 5.0, 2.0, 1.0, 6.0, 4.0, 2.0, 0.0, 0.0, 0.0, 2.0, 0.0, 0.0, 0.0, 0.0, 0.0, 1.0, 0.0, 0.0, 1.0], "bins": [-0.11701924353837967, -0.1130545511841774, -0.10908985882997513, -0.10512516647577286, -0.10116048157215118, -0.09719578921794891, -0.09323109686374664, -0.08926640450954437, -0.0853017121553421, -0.08133701980113983, -0.07737232744693756, -0.07340763509273529, -0.06944294273853302, -0.06547825038433075, -0.061513565480709076, -0.057548873126506805, -0.053584180772304535, -0.049619488418102264, -0.045654796063899994, -0.04169010370969772, -0.03772541135549545, -0.03376072645187378, -0.02979603409767151, -0.02583134174346924, -0.021866649389266968, -0.017901957035064697, -0.013937264680862427, -0.009972572326660156, -0.006007887423038483, -0.002043195068836212, 0.0019214972853660583, 0.005886189639568329, 0.009850874543190002, 0.013815566897392273, 0.017780259251594543, 0.021744951605796814, 0.025709643959999084, 0.029674328863620758, 0.03363902121782303, 0.0376037135720253, 0.04156840592622757, 0.04553309828042984, 0.04949779063463211, 0.05346248298883438, 0.057427167892456055, 0.061391860246658325, 0.0653565526008606, 0.06932124495506287, 0.07328593730926514, 0.07725062966346741, 0.08121532201766968, 0.08518001437187195, 0.08914470672607422, 0.09310939908027649, 0.09707408398389816, 0.10103877633810043, 0.1050034686923027, 0.10896816104650497, 0.11293285340070724, 0.11689753830432892, 0.12086223065853119, 0.12482692301273346, 0.12879161536693573, 0.132756307721138, 0.13672100007534027]}, "parameters/action_net.bias": {"_type": "histogram", "values": [1.0, 0.0, 0.0, 0.0, 0.0, 0.0, 0.0, 0.0, 0.0, 0.0, 0.0, 0.0, 1.0, 0.0, 0.0, 0.0, 0.0, 0.0, 0.0, 0.0, 0.0, 0.0, 0.0, 0.0, 0.0, 0.0, 0.0, 0.0, 1.0, 0.0, 0.0, 0.0, 0.0, 0.0, 0.0, 0.0, 0.0, 0.0, 0.0, 0.0, 0.0, 0.0, 0.0, 0.0, 0.0, 0.0, 0.0, 0.0, 0.0, 0.0, 0.0, 0.0, 0.0, 0.0, 0.0, 0.0, 0.0, 0.0, 0.0, 0.0, 0.0, 0.0, 0.0, 1.0], "bins": [0.0681678056716919, 0.06906743347644806, 0.06996705383062363, 0.07086668163537979, 0.07176630198955536, 0.07266592979431152, 0.07356555759906769, 0.07446517795324326, 0.07536480575799942, 0.07626442611217499, 0.07716405391693115, 0.07806368172168732, 0.07896330207586288, 0.07986292988061905, 0.08076255023479462, 0.08166217803955078, 0.08256180584430695, 0.08346142619848251, 0.08436105400323868, 0.08526067435741425, 0.08616030216217041, 0.08705992996692657, 0.08795955032110214, 0.0888591781258583, 0.08975879848003387, 0.09065842628479004, 0.0915580540895462, 0.09245767444372177, 0.09335729479789734, 0.0942569226026535, 0.09515655040740967, 0.09605617821216583, 0.0969557985663414, 0.09785541892051697, 0.09875504672527313, 0.0996546745300293, 0.10055430233478546, 0.10145392268896103, 0.1023535430431366, 0.10325317084789276, 0.10415279865264893, 0.1050524190068245, 0.10595204681158066, 0.10685166716575623, 0.10775129497051239, 0.10865092277526855, 0.10955054312944412, 0.11045017093420029, 0.11134979128837585, 0.11224941909313202, 0.11314904689788818, 0.11404866725206375, 0.11494829505681992, 0.11584791541099548, 0.11674754321575165, 0.11764717102050781, 0.11854679137468338, 0.11944641917943954, 0.12034603953361511, 0.12124566733837128, 0.12214529514312744, 0.12304491549730301, 0.12394454330205917, 0.12484416365623474, 0.1257437914609909]}, "parameters/value_net.weight": {"_type": "histogram", "values": [32.0, 24.0, 0.0, 0.0, 0.0, 0.0, 0.0, 0.0, 0.0, 0.0, 0.0, 0.0, 0.0, 0.0, 0.0, 0.0, 0.0, 0.0, 0.0, 0.0, 0.0, 0.0, 0.0, 0.0, 0.0, 0.0, 0.0, 0.0, 0.0, 0.0, 0.0, 0.0, 0.0, 0.0, 0.0, 0.0, 0.0, 0.0, 0.0, 0.0, 0.0, 0.0, 0.0, 0.0, 0.0, 0.0, 0.0, 0.0, 0.0, 0.0, 0.0, 0.0, 0.0, 0.0, 0.0, 0.0, 0.0, 0.0, 0.0, 0.0, 0.0, 0.0, 0.0, 72.0], "bins": [-6.278013706207275, -6.0828857421875, -5.887757778167725, -5.692629814147949, -5.497501850128174, -5.302373886108398, -5.107246398925781, -4.912118434906006, -4.7169904708862305, -4.521862506866455, -4.32673454284668, -4.131606578826904, -3.936478614807129, -3.7413506507873535, -3.5462229251861572, -3.351094961166382, -3.1559669971466064, -2.960839033126831, -2.7657110691070557, -2.5705833435058594, -2.375455379486084, -2.1803274154663086, -1.9851994514465332, -1.7900714874267578, -1.5949435234069824, -1.399815559387207, -1.2046875953674316, -1.0095601081848145, -0.8144321441650391, -0.6193041801452637, -0.4241762161254883, -0.2290482521057129, -0.0339202880859375, 0.1612076759338379, 0.3563356399536133, 0.5514636039733887, 0.7465915679931641, 0.9417195320129395, 1.1368470191955566, 1.331974983215332, 1.5271029472351074, 1.7222309112548828, 1.9173588752746582, 2.1124868392944336, 2.307614803314209, 2.5027427673339844, 2.6978704929351807, 2.892998456954956, 3.0881264209747314, 3.283254384994507, 3.4783823490142822, 3.6735100746154785, 3.868638038635254, 4.063766002655029, 4.258893966674805, 4.45402193069458, 4.6491498947143555, 4.844277858734131, 5.039405822753906, 5.234533309936523, 5.429661273956299, 5.624789237976074, 5.81991720199585, 6.015045166015625, 6.2101731300354]}, "parameters/value_net.bias": {"_type": "histogram", "values": [1.0], "bins": [-5.962669372558594, -5.962669372558594]}, "gradients/value_net.bias": {"_type": "histogram", "values": [1.0], "bins": [18.54509925842285, 18.54509925842285]}, "gradients/value_net.weight": {"_type": "histogram", "values": [72.0, 0.0, 0.0, 0.0, 0.0, 0.0, 0.0, 0.0, 0.0, 0.0, 0.0, 0.0, 0.0, 0.0, 0.0, 0.0, 0.0, 0.0, 0.0, 0.0, 0.0, 0.0, 0.0, 0.0, 0.0, 0.0, 0.0, 0.0, 0.0, 0.0, 0.0, 0.0, 0.0, 0.0, 0.0, 0.0, 0.0, 0.0, 0.0, 0.0, 0.0, 0.0, 0.0, 0.0, 0.0, 0.0, 0.0, 0.0, 0.0, 0.0, 0.0, 0.0, 0.0, 0.0, 0.0, 0.0, 0.0, 0.0, 0.0, 0.0, 0.0, 0.0, 0.0, 56.0], "bins": [-18.545133590698242, -17.965599060058594, -17.386062622070312, -16.806528091430664, -16.226993560791016, -15.64745807647705, -15.067922592163086, -14.488388061523438, -13.908852577209473, -13.329317092895508, -12.74978256225586, -12.170247077941895, -11.59071159362793, -11.011177062988281, -10.431641578674316, -9.852107048034668, -9.272571563720703, -8.693036079406738, -8.11350154876709, -7.533966064453125, -6.954431533813477, -6.374896049499512, -5.795360565185547, -5.215826034545898, -4.636290550231934, -4.056755065917969, -3.4772205352783203, -2.8976850509643555, -2.3181495666503906, -1.7386150360107422, -1.1590805053710938, -0.5795440673828125, -7.62939453125e-06, 0.5795269012451172, 1.1590633392333984, 1.7385978698730469, 2.3181324005126953, 2.89766788482666, 3.477203369140625, 4.056737899780273, 4.636273384094238, 5.215808868408203, 5.795343399047852, 6.374878883361816, 6.954414367675781, 7.53394889831543, 8.113484382629395, 8.693018913269043, 9.272554397583008, 9.852089881896973, 10.431624412536621, 11.011159896850586, 11.590694427490234, 12.1702299118042, 12.749765396118164, 13.329299926757812, 13.908835411071777, 14.488370895385742, 15.06790542602539, 15.647440910339355, 16.22697639465332, 16.80651092529297, 17.386045455932617, 17.9655818939209, 18.545116424560547]}, "gradients/log_std": {"_type": "histogram", "values": [1.0, 0.0, 0.0, 0.0, 0.0, 0.0, 0.0, 0.0, 0.0, 0.0, 0.0, 0.0, 0.0, 0.0, 0.0, 0.0, 0.0, 1.0, 0.0, 0.0, 0.0, 0.0, 0.0, 0.0, 0.0, 0.0, 0.0, 1.0, 0.0, 0.0, 0.0, 0.0, 0.0, 0.0, 0.0, 0.0, 0.0, 0.0, 0.0, 0.0, 0.0, 0.0, 0.0, 0.0, 0.0, 0.0, 0.0, 0.0, 0.0, 0.0, 0.0, 0.0, 0.0, 0.0, 0.0, 0.0, 0.0, 0.0, 0.0, 0.0, 0.0, 0.0, 0.0, 1.0], "bins": [0.004957180470228195, 0.005360341165214777, 0.005763501860201359, 0.006166663020849228, 0.006569823250174522, 0.0069729844108223915, 0.007376145105808973, 0.007779305800795555, 0.00818246603012085, 0.008585627190768719, 0.008988788351416588, 0.009391948580741882, 0.009795109741389751, 0.01019827090203762, 0.010601431131362915, 0.01100459136068821, 0.011407752521336079, 0.011810913681983948, 0.012214073911309242, 0.012617234140634537, 0.013020395301282406, 0.013423556461930275, 0.01382671669125557, 0.014229877851903439, 0.014633039012551308, 0.015036199241876602, 0.015439360402524471, 0.01584251970052719, 0.016245681792497635, 0.01664884202182293, 0.017052002251148224, 0.017455164343118668, 0.017858324572443962, 0.018261484801769257, 0.0186646468937397, 0.019067807123064995, 0.01947096735239029, 0.019874129444360733, 0.02027728781104088, 0.020680449903011322, 0.021083610132336617, 0.02148677036166191, 0.021889932453632355, 0.02229309268295765, 0.022696252912282944, 0.023099415004253387, 0.023502575233578682, 0.023905735462903976, 0.02430889755487442, 0.024712057784199715, 0.02511521801352501, 0.025518378242850304, 0.025921538472175598, 0.026324700564146042, 0.026727860793471336, 0.02713102102279663, 0.027534183114767075, 0.02793734334409237, 0.028340503573417664, 0.028743665665388107, 0.029146825894713402, 0.029549986124038696, 0.02995314635336399, 0.030356308445334435, 0.03075946867465973]}, "gradients/action_net.bias": {"_type": "histogram", "values": [1.0, 0.0, 0.0, 0.0, 0.0, 0.0, 0.0, 0.0, 0.0, 0.0, 0.0, 0.0, 0.0, 0.0, 0.0, 0.0, 0.0, 0.0, 0.0, 0.0, 0.0, 0.0, 0.0, 0.0, 0.0, 0.0, 0.0, 0.0, 0.0, 0.0, 0.0, 0.0, 1.0, 0.0, 0.0, 0.0, 0.0, 0.0, 0.0, 0.0, 0.0, 0.0, 0.0, 0.0, 1.0, 0.0, 0.0, 0.0, 0.0, 0.0, 0.0, 0.0, 0.0, 0.0, 0.0, 0.0, 0.0, 0.0, 0.0, 0.0, 0.0, 0.0, 0.0, 1.0], "bins": [-0.04453025013208389, -0.043117329478263855, -0.04170440882444382, -0.04029149189591408, -0.03887857124209404, -0.037465650588274, -0.03605273365974426, -0.034639813005924225, -0.03322689235210419, -0.03181397169828415, -0.03040105290710926, -0.028988134115934372, -0.027575213462114334, -0.026162292808294296, -0.024749374017119408, -0.02333645522594452, -0.02192353457212448, -0.020510613918304443, -0.019097695127129555, -0.017684776335954666, -0.01627185568213463, -0.01485893502831459, -0.013446016237139702, -0.012033097445964813, -0.010620176792144775, -0.009207256138324738, -0.0077943354845047, -0.00638141855597496, -0.0049684979021549225, -0.0035555772483348846, -0.0021426603198051453, -0.0007297396659851074, 0.000683177262544632, 0.00209609791636467, 0.0035090185701847076, 0.004921935498714447, 0.006334856152534485, 0.007747776806354523, 0.009160693734884262, 0.0105736143887043, 0.011986535042524338, 0.013399455696344376, 0.014812374487519264, 0.016225293278694153, 0.01763821393251419, 0.01905113458633423, 0.020464053377509117, 0.021876972168684006, 0.023289892822504044, 0.02470281347632408, 0.02611573226749897, 0.02752865105867386, 0.028941571712493896, 0.030354492366313934, 0.03176741302013397, 0.03318032994866371, 0.03459325060248375, 0.03600617125630379, 0.03741908818483353, 0.038832008838653564, 0.0402449294924736, 0.04165785014629364, 0.04307077080011368, 0.04448368772864342, 0.045896608382463455]}, "gradients/action_net.weight": {"_type": "histogram", "values": [1.0, 0.0, 1.0, 0.0, 0.0, 0.0, 0.0, 1.0, 0.0, 2.0, 0.0, 1.0, 2.0, 4.0, 3.0, 3.0, 3.0, 2.0, 6.0, 5.0, 2.0, 4.0, 8.0, 8.0, 9.0, 11.0, 14.0, 15.0, 14.0, 17.0, 21.0, 30.0, 30.0, 36.0, 35.0, 38.0, 36.0, 11.0, 12.0, 19.0, 18.0, 15.0, 9.0, 13.0, 7.0, 6.0, 8.0, 5.0, 6.0, 3.0, 5.0, 1.0, 0.0, 4.0, 1.0, 0.0, 1.0, 1.0, 1.0, 1.0, 0.0, 1.0, 0.0, 2.0], "bins": [-0.027440285310149193, -0.026632562279701233, -0.025824841111898422, -0.025017118081450462, -0.02420939691364765, -0.023401673883199692, -0.02259395271539688, -0.02178622968494892, -0.02097850665450096, -0.02017078548669815, -0.01936306431889534, -0.01855534128844738, -0.01774761825799942, -0.01693989709019661, -0.01613217405974865, -0.015324451960623264, -0.014516729861497879, -0.013709007762372494, -0.012901285663247108, -0.012093563564121723, -0.011285841464996338, -0.010478118434548378, -0.009670397266745567, -0.008862674236297607, -0.008054951205849648, -0.007247230038046837, -0.006439507007598877, -0.005631785839796066, -0.004824062809348106, -0.004016341641545296, -0.003208618611097336, -0.002400897443294525, -0.001593172550201416, -0.0007854495197534561, 2.2271648049354553e-05, 0.0008299946784973145, 0.0016377158463001251, 0.002445438876748085, 0.0032531600445508957, 0.004060883074998856, 0.004868604242801666, 0.005676327273249626, 0.006484050303697586, 0.007291771471500397, 0.008099494501948357, 0.008907216601073742, 0.009714938700199127, 0.010522660799324512, 0.011330382898449898, 0.012138104997575283, 0.012945827096700668, 0.013753549195826054, 0.014561271294951439, 0.015368994325399399, 0.01617671549320221, 0.01698443852365017, 0.01779216155409813, 0.01859988272190094, 0.01940760388970375, 0.02021532692015171, 0.02102304995059967, 0.02183077111840248, 0.02263849414885044, 0.02344621531665325, 0.02425393834710121]}, "gradients/mlp_extractor.value_net.6.bias": {"_type": "histogram", "values": [1.0, 0.0, 0.0, 0.0, 0.0, 0.0, 0.0, 0.0, 0.0, 0.0, 0.0, 0.0, 0.0, 0.0, 0.0, 0.0, 0.0, 0.0, 0.0, 0.0, 1.0, 0.0, 0.0, 0.0, 0.0, 0.0, 0.0, 0.0, 0.0, 0.0, 2.0, 1.0, 0.0, 0.0, 1.0, 1.0, 1.0, 0.0, 6.0, 3.0, 6.0, 3.0, 9.0, 10.0, 14.0, 8.0, 11.0, 12.0, 9.0, 1.0, 8.0, 8.0, 4.0, 3.0, 0.0, 0.0, 2.0, 0.0, 1.0, 0.0, 0.0, 1.0, 0.0, 1.0], "bins": [-0.00035940372617915273, -0.0003515960997901857, -0.00034378847340121865, -0.0003359808470122516, -0.0003281732206232846, -0.00032036559423431754, -0.0003125579678453505, -0.00030475034145638347, -0.00029694271506741643, -0.0002891350886784494, -0.00028132746228948236, -0.0002735198650043458, -0.00026571223861537874, -0.0002579046122264117, -0.00025009698583744466, -0.00024228935944847763, -0.0002344817330595106, -0.00022667410667054355, -0.00021886648028157651, -0.00021105885389260948, -0.00020325122750364244, -0.00019544361566659063, -0.0001876359892776236, -0.00017982836288865656, -0.00017202073649968952, -0.00016421311011072248, -0.00015640548372175545, -0.0001485978573327884, -0.0001407902454957366, -0.00013298261910676956, -0.00012517499271780252, -0.00011736736632883549, -0.00010955975449178368, -0.00010175212810281664, -9.39445017138496e-05, -8.613687532488257e-05, -7.832924893591553e-05, -7.052163709886372e-05, -6.271401070989668e-05, -5.4906384320929646e-05, -4.709875793196261e-05, -3.929113154299557e-05, -3.1483505154028535e-05, -2.3675878765061498e-05, -1.586826692800969e-05, -8.060640539042652e-06, -2.5301415007561445e-07, 7.554612238891423e-06, 1.536223862785846e-05, 2.3169865016825497e-05, 3.0977491405792534e-05, 3.878511051880196e-05, 4.6592736907768995e-05, 5.440036329673603e-05, 6.220798240974545e-05, 7.001560879871249e-05, 7.782323518767953e-05, 8.563086157664657e-05, 9.34384879656136e-05, 0.00010124610707862303, 0.00010905373346759006, 0.0001168613598565571, 0.00012466897896956652, 0.00013247660535853356, 0.0001402842317475006]}, "gradients/mlp_extractor.value_net.6.weight": {"_type": "histogram", "values": [30.0, 43.0, 14.0, 3.0, 4.0, 2.0, 3.0, 3.0, 1.0, 2.0, 0.0, 0.0, 1.0, 1.0, 29.0, 58.0, 7.0, 5.0, 5.0, 36.0, 62.0, 231.0, 178.0, 93.0, 272.0, 282.0, 316.0, 1387.0, 1863.0, 2296.0, 3702.0, 5089.0, 4635.0, 4562.0, 2175.0, 2033.0, 1354.0, 544.0, 258.0, 298.0, 105.0, 165.0, 274.0, 49.0, 49.0, 2.0, 12.0, 19.0, 49.0, 41.0, 1.0, 2.0, 0.0, 2.0, 3.0, 2.0, 2.0, 1.0, 7.0, 6.0, 9.0, 16.0, 37.0, 38.0], "bins": [-0.00035450299037620425, -0.0003434474638197571, -0.0003323919081594795, -0.00032133638160303235, -0.00031028082594275475, -0.0002992252993863076, -0.00028816977282986045, -0.00027711421716958284, -0.0002660586906131357, -0.00025500316405668855, -0.00024394760839641094, -0.0002328920818399638, -0.00022183654073160142, -0.00021078099962323904, -0.0001997254730667919, -0.00018866993195842952, -0.00017761439085006714, -0.00016655884974170476, -0.00015550330863334239, -0.00014444778207689524, -0.00013339224096853286, -0.00012233669986017048, -0.00011128117330372334, -0.00010022561764344573, -8.917009108699858e-05, -7.811456453055143e-05, -6.705900887027383e-05, -5.600348231382668e-05, -4.494795575737953e-05, -3.389240009710193e-05, -2.283687354065478e-05, -1.1781317880377173e-05, -7.257622200995684e-07, 1.032976433634758e-05, 2.1385319996625185e-05, 3.244084655307233e-05, 4.349640221334994e-05, 5.455192876979709e-05, 6.560745532624424e-05, 7.666301098652184e-05, 8.771853754296899e-05, 9.877406409941614e-05, 0.00010982961975969374, 0.00012088514631614089, 0.00013194068742450327, 0.00014299622853286564, 0.0001540517550893128, 0.00016510729619767517, 0.00017616283730603755, 0.00018721837841439992, 0.0001982739195227623, 0.00020932944607920945, 0.00022038498718757182, 0.0002314405282959342, 0.00024249605485238135, 0.0002535515814088285, 0.0002646071370691061, 0.0002756626927293837, 0.00028671821928583086, 0.000297773745842278, 0.0003088293015025556, 0.00031988482805900276, 0.0003309403546154499, 0.0003419959102757275, 0.00035305143683217466]}, "gradients/mlp_extractor.value_net.4.bias": {"_type": "histogram", "values": [1.0, 0.0, 0.0, 1.0, 0.0, 0.0, 1.0, 1.0, 0.0, 0.0, 1.0, 1.0, 0.0, 3.0, 3.0, 2.0, 1.0, 2.0, 0.0, 2.0, 1.0, 5.0, 4.0, 2.0, 6.0, 7.0, 9.0, 13.0, 15.0, 21.0, 25.0, 14.0, 0.0, 3.0, 9.0, 25.0, 25.0, 17.0, 7.0, 5.0, 0.0, 5.0, 1.0, 1.0, 1.0, 1.0, 3.0, 1.0, 1.0, 2.0, 1.0, 1.0, 0.0, 0.0, 1.0, 0.0, 0.0, 0.0, 1.0, 0.0, 1.0, 1.0, 1.0, 1.0], "bins": [-0.00021936395205557346, -0.00021271106379572302, -0.00020605817553587258, -0.00019940530182793736, -0.00019275241356808692, -0.00018609952530823648, -0.00017944665160030127, -0.00017279376334045082, -0.00016614087508060038, -0.00015948798682074994, -0.0001528350985608995, -0.00014618222485296428, -0.00013952933659311384, -0.0001328764483332634, -0.00012622357462532818, -0.00011957068636547774, -0.0001129177981056273, -0.00010626490984577686, -9.961202886188403e-05, -9.29591478779912e-05, -8.630625961814076e-05, -7.965337135829031e-05, -7.30004976503551e-05, -6.634760939050466e-05, -5.9694721130654216e-05, -5.3041832870803773e-05, -4.638894461095333e-05, -3.973607090301812e-05, -3.3083182643167675e-05, -2.6430294383317232e-05, -1.9777420675382018e-05, -1.3124532415531576e-05, -6.471629603765905e-06, 1.812586560845375e-07, 6.83414691593498e-06, 1.3487020623870194e-05, 2.0139908883720636e-05, 2.679279714357108e-05, 3.344567085150629e-05, 4.0098559111356735e-05, 4.675144737120718e-05, 5.340433563105762e-05, 6.005722389090806e-05, 6.671009759884328e-05, 7.336298585869372e-05, 8.001587411854416e-05, 8.666875510243699e-05, 9.332163608632982e-05, 9.997452434618026e-05, 0.0001066274126060307, 0.00011328029358992353, 0.00011993317457381636, 0.0001265860628336668, 0.00013323895109351724, 0.00013989183935336769, 0.0001465447130613029, 0.00015319760132115334, 0.00015985048958100379, 0.000166503363288939, 0.00017315625154878944, 0.00017980913980863988, 0.00018646202806849033, 0.00019311491632834077, 0.00019976779003627598, 0.00020642067829612643]}, "gradients/mlp_extractor.value_net.4.weight": {"_type": "histogram", "values": [4.0, 4.0, 3.0, 4.0, 9.0, 11.0, 19.0, 28.0, 43.0, 46.0, 66.0, 67.0, 83.0, 129.0, 157.0, 189.0, 249.0, 362.0, 428.0, 544.0, 652.0, 865.0, 1080.0, 1411.0, 1874.0, 2718.0, 4483.0, 7871.0, 13681.0, 19249.0, 11012.0, 15485.0, 17918.0, 10664.0, 6093.0, 3498.0, 2334.0, 1693.0, 1355.0, 992.0, 811.0, 639.0, 487.0, 402.0, 286.0, 243.0, 211.0, 150.0, 115.0, 82.0, 83.0, 57.0, 42.0, 32.0, 22.0, 11.0, 7.0, 6.0, 4.0, 4.0, 2.0, 2.0, 0.0, 1.0], "bins": [-7.840381294954568e-05, -7.585628191009164e-05, -7.330874359467998e-05, -7.076121255522594e-05, -6.821367423981428e-05, -6.566614320036024e-05, -6.31186121609062e-05, -6.0571077483473346e-05, -5.8023542806040496e-05, -5.5476008128607646e-05, -5.2928473451174796e-05, -5.038094241172075e-05, -4.78334077342879e-05, -4.528587305685505e-05, -4.273834201740101e-05, -4.019080733996816e-05, -3.764327266253531e-05, -3.509573798510246e-05, -3.254820330766961e-05, -3.0000672268215567e-05, -2.7453137590782717e-05, -2.4905602913349867e-05, -2.2358071873895824e-05, -1.9810537196462974e-05, -1.7263002519030124e-05, -1.4715471479576081e-05, -1.2167933164164424e-05, -9.620402124710381e-06, -7.072871085256338e-06, -4.525332769844681e-06, -1.977801730390638e-06, 5.69736585021019e-07, 3.1172603485174477e-06, 5.664791387971491e-06, 8.212329703383148e-06, 1.075986074283719e-05, 1.3307399058248848e-05, 1.585493009770289e-05, 1.8402461137156934e-05, 2.094999945256859e-05, 2.3497530492022634e-05, 2.6045065169455484e-05, 2.8592599846888334e-05, 3.1140130886342376e-05, 3.3687665563775226e-05, 3.6235200241208076e-05, 3.878273128066212e-05, 4.133026595809497e-05, 4.387780063552782e-05, 4.642533531296067e-05, 4.897286999039352e-05, 5.152040102984756e-05, 5.406793570728041e-05, 5.661547038471326e-05, 5.9163001424167305e-05, 6.171053973957896e-05, 6.4258070779033e-05, 6.680560181848705e-05, 6.93531401338987e-05, 7.190067117335275e-05, 7.44482094887644e-05, 7.699574052821845e-05, 7.954327156767249e-05, 8.209080988308415e-05, 8.463834092253819e-05]}, "gradients/mlp_extractor.value_net.2.bias": {"_type": "histogram", "values": [1.0, 0.0, 1.0, 1.0, 1.0, 3.0, 2.0, 1.0, 6.0, 8.0, 5.0, 10.0, 5.0, 6.0, 10.0, 17.0, 15.0, 9.0, 14.0, 13.0, 18.0, 9.0, 13.0, 5.0, 13.0, 19.0, 11.0, 11.0, 9.0, 6.0, 6.0, 12.0, 5.0, 6.0, 8.0, 9.0, 10.0, 8.0, 7.0, 11.0, 6.0, 12.0, 14.0, 19.0, 18.0, 8.0, 14.0, 8.0, 10.0, 16.0, 9.0, 10.0, 10.0, 6.0, 4.0, 5.0, 4.0, 4.0, 2.0, 2.0, 3.0, 0.0, 1.0, 3.0], "bins": [-0.0003385287709534168, -0.00032816920429468155, -0.0003178096376359463, -0.000307450070977211, -0.0002970905334223062, -0.0002867309667635709, -0.00027637140010483563, -0.00026601183344610035, -0.00025565229589119554, -0.00024529272923246026, -0.00023493316257372499, -0.0002245735959149897, -0.00021421402925625443, -0.0002038544771494344, -0.0001934949104906991, -0.00018313535838387907, -0.0001727757917251438, -0.00016241622506640851, -0.00015205667295958847, -0.0001416971063008532, -0.00013133755419403315, -0.00012097798753529787, -0.0001106184208765626, -0.00010025886876974255, -8.989928755909204e-05, -7.953975000418723e-05, -6.918018334545195e-05, -5.8820616686716676e-05, -4.84610500279814e-05, -3.8101483369246125e-05, -2.7741945814341307e-05, -1.738237915560603e-05, -7.022812496870756e-06, 3.336754161864519e-06, 1.3696320820599794e-05, 2.4055858375504613e-05, 3.441542503423989e-05, 4.4774991692975163e-05, 5.513455835171044e-05, 6.549412501044571e-05, 7.585366256535053e-05, 8.621324377600104e-05, 9.657279588282108e-05, 0.00010693236254155636, 0.00011729192920029163, 0.00012765148130711168, 0.00013801104796584696, 0.000148370600072667, 0.00015873016673140228, 0.00016908973339013755, 0.0001794492854969576, 0.00018980885215569288, 0.00020016840426251292, 0.0002105279709212482, 0.00022088753757998347, 0.00023124710423871875, 0.0002416066563455388, 0.00025196620845235884, 0.0002623257751110941, 0.0002726853417698294, 0.00028304490842856467, 0.0002934044459834695, 0.00030376401264220476, 0.00031412357930094004, 0.0003244831459596753]}, "gradients/mlp_extractor.value_net.2.weight": {"_type": "histogram", "values": [4.0, 2.0, 6.0, 5.0, 8.0, 23.0, 23.0, 24.0, 47.0, 71.0, 72.0, 112.0, 165.0, 204.0, 310.0, 396.0, 552.0, 716.0, 933.0, 1277.0, 1732.0, 2207.0, 2755.0, 3795.0, 4921.0, 6547.0, 8622.0, 11567.0, 15160.0, 20353.0, 28521.0, 37486.0, 29070.0, 20819.0, 15506.0, 11823.0, 8983.0, 6623.0, 4961.0, 3755.0, 2929.0, 2253.0, 1683.0, 1296.0, 983.0, 756.0, 564.0, 407.0, 312.0, 243.0, 162.0, 107.0, 86.0, 63.0, 47.0, 31.0, 24.0, 18.0, 9.0, 3.0, 4.0, 6.0, 1.0, 1.0], "bins": [-5.225177665124647e-05, -5.0594804633874446e-05, -4.893783261650242e-05, -4.728086059913039e-05, -4.5623888581758365e-05, -4.396691656438634e-05, -4.230994454701431e-05, -4.0652972529642284e-05, -3.899600051227026e-05, -3.733902849489823e-05, -3.56820564775262e-05, -3.4025084460154176e-05, -3.236811244278215e-05, -3.071114042541012e-05, -2.9054168408038095e-05, -2.7397196390666068e-05, -2.574022437329404e-05, -2.4083252355922014e-05, -2.2426280338549986e-05, -2.076930832117796e-05, -1.9112336303805932e-05, -1.7455364286433905e-05, -1.579839226906188e-05, -1.4141420251689851e-05, -1.2484448234317824e-05, -1.0827476216945797e-05, -9.17050419957377e-06, -7.513532182201743e-06, -5.856560164829716e-06, -4.199588147457689e-06, -2.542616130085662e-06, -8.85644112713635e-07, 7.71324266679585e-07, 2.428296284051612e-06, 4.085268301423639e-06, 5.742240318795666e-06, 7.399212336167693e-06, 9.05618435353972e-06, 1.0713156370911747e-05, 1.2370128388283774e-05, 1.4027100405655801e-05, 1.568407242302783e-05, 1.7341044440399855e-05, 1.8998016457771882e-05, 2.065498847514391e-05, 2.2311960492515936e-05, 2.3968932509887964e-05, 2.562590452725999e-05, 2.7282876544632018e-05, 2.8939848562004045e-05, 3.059682057937607e-05, 3.22537925967481e-05, 3.3910764614120126e-05, 3.556773663149215e-05, 3.722470864886418e-05, 3.888168066623621e-05, 4.0538652683608234e-05, 4.219562470098026e-05, 4.385259671835229e-05, 4.5509568735724315e-05, 4.716654075309634e-05, 4.882351277046837e-05, 5.0480484787840396e-05, 5.213745680521242e-05, 5.379442882258445e-05]}, "gradients/mlp_extractor.value_net.0.bias": {"_type": "histogram", "values": [1.0, 1.0, 1.0, 1.0, 2.0, 3.0, 1.0, 6.0, 3.0, 4.0, 7.0, 10.0, 1.0, 6.0, 15.0, 11.0, 6.0, 10.0, 12.0, 10.0, 9.0, 17.0, 10.0, 20.0, 13.0, 14.0, 18.0, 8.0, 5.0, 13.0, 9.0, 9.0, 8.0, 9.0, 11.0, 11.0, 7.0, 11.0, 13.0, 6.0, 15.0, 17.0, 3.0, 10.0, 18.0, 12.0, 10.0, 11.0, 14.0, 12.0, 12.0, 4.0, 7.0, 5.0, 7.0, 4.0, 6.0, 4.0, 1.0, 2.0, 0.0, 2.0, 3.0, 1.0], "bins": [-0.0024891055654734373, -0.002412270987406373, -0.0023354364093393087, -0.0022586018312722445, -0.00218176725320518, -0.002104932675138116, -0.0020280980970710516, -0.0019512635190039873, -0.001874428940936923, -0.0017975943628698587, -0.0017207597848027945, -0.0016439252067357302, -0.0015670906286686659, -0.0014902560506016016, -0.0014134214725345373, -0.001336586894467473, -0.0012597523164004087, -0.0011829177383333445, -0.0011060831602662802, -0.0010292485821992159, -0.0009524140041321516, -0.0008755794260650873, -0.000798744847998023, -0.0007219102699309587, -0.0006450756918638945, -0.0005682411137968302, -0.0004914065357297659, -0.0004145719576627016, -0.0003377373795956373, -0.00026090280152857304, -0.00018406822346150875, -0.00010723364539444447, -3.039906732738018e-05, 4.6435510739684105e-05, 0.0001232700888067484, 0.00020010466687381268, 0.00027693924494087696, 0.00035377382300794125, 0.00043060840107500553, 0.0005074429791420698, 0.0005842775572091341, 0.0006611121352761984, 0.0007379467133432627, 0.000814781291410327, 0.0008916158694773912, 0.0009684504475444555, 0.0010452850256115198, 0.001122119603678584, 0.0011989541817456484, 0.0012757887598127127, 0.001352623337879777, 0.0014294579159468412, 0.0015062924940139055, 0.0015831270720809698, 0.001659961650148034, 0.0017367962282150984, 0.0018136308062821627, 0.001890465384349227, 0.0019672999624162912, 0.0020441345404833555, 0.00212096911855042, 0.002197803696617484, 0.0022746382746845484, 0.0023514728527516127, 0.002428307430818677]}, "gradients/mlp_extractor.value_net.0.weight": {"_type": "histogram", "values": [1.0, 0.0, 2.0, 1.0, 1.0, 2.0, 2.0, 4.0, 3.0, 5.0, 6.0, 8.0, 6.0, 4.0, 15.0, 13.0, 15.0, 21.0, 18.0, 29.0, 32.0, 44.0, 43.0, 55.0, 62.0, 72.0, 79.0, 100.0, 106.0, 269.0, 483.0, 817.0, 1725.0, 680.0, 463.0, 232.0, 115.0, 93.0, 64.0, 67.0, 52.0, 58.0, 36.0, 46.0, 34.0, 28.0, 27.0, 15.0, 17.0, 16.0, 12.0, 10.0, 4.0, 6.0, 4.0, 7.0, 5.0, 1.0, 2.0, 1.0, 1.0, 1.0, 3.0, 1.0], "bins": [-0.0016583027318120003, -0.0016071585705503821, -0.001556014409288764, -0.001504870131611824, -0.001453725970350206, -0.0014025818090885878, -0.0013514375314116478, -0.0013002933701500297, -0.0012491492088884115, -0.0011980050476267934, -0.0011468608863651752, -0.0010957166086882353, -0.0010445724474266171, -0.000993428286164999, -0.00094228406669572, -0.0008911398472264409, -0.0008399956859648228, -0.0007888515247032046, -0.0007377073052339256, -0.0006865630857646465, -0.0006354189245030284, -0.0005842747632414103, -0.0005331304855644703, -0.00048198632430285215, -0.000430842163041234, -0.0003796980017796159, -0.00032855384051799774, -0.0002774095628410578, -0.00022626540157943964, -0.0001751212403178215, -0.00012397696264088154, -7.28328013792634e-05, -2.1688523702323437e-05, 2.94556375592947e-05, 8.059979882091284e-05, 0.0001317440764978528, 0.00018288823775947094, 0.00023403239902108908, 0.00028517667669802904, 0.0003363208379596472, 0.0003874649992212653, 0.00043860916048288345, 0.0004897533217445016, 0.0005408975994214416, 0.0005920417606830597, 0.0006431859219446778, 0.0006943301414139569, 0.0007454743608832359, 0.0007966185221448541, 0.0008477626834064722, 0.0008989069028757513, 0.0009500511223450303, 0.0010011952836066484, 0.0010523394448682666, 0.0011034836061298847, 0.0011546278838068247, 0.0012057720450684428, 0.001256916206330061, 0.001308060484007001, 0.001359204645268619, 0.0014103488065302372, 0.0014614929677918553, 0.0015126371290534735, 0.0015637814067304134, 0.0016149255679920316]}, "gradients/mlp_extractor.policy_net.6.bias": {"_type": "histogram", "values": [1.0, 0.0, 0.0, 3.0, 2.0, 0.0, 1.0, 1.0, 2.0, 0.0, 1.0, 2.0, 1.0, 4.0, 0.0, 2.0, 2.0, 6.0, 4.0, 1.0, 2.0, 6.0, 4.0, 3.0, 7.0, 3.0, 3.0, 1.0, 3.0, 1.0, 5.0, 7.0, 2.0, 1.0, 0.0, 3.0, 3.0, 6.0, 5.0, 2.0, 3.0, 1.0, 5.0, 1.0, 3.0, 5.0, 2.0, 0.0, 0.0, 1.0, 1.0, 1.0, 0.0, 1.0, 1.0, 0.0, 0.0, 1.0, 1.0, 0.0, 0.0, 0.0, 0.0, 1.0], "bins": [-0.006835135631263256, -0.0066129593178629875, -0.006390783004462719, -0.00616860669106245, -0.005946430377662182, -0.005724254064261913, -0.005502078216522932, -0.0052799019031226635, -0.005057725589722395, -0.004835549276322126, -0.004613372962921858, -0.004391197115182877, -0.004169020801782608, -0.0039468444883823395, -0.003724668174982071, -0.0035024918615818024, -0.003280315548181534, -0.0030581392347812653, -0.0028359629213809967, -0.002613786607980728, -0.0023916102945804596, -0.0021694344468414783, -0.0019472581334412098, -0.0017250818200409412, -0.0015029055066406727, -0.0012807291932404041, -0.0010585528798401356, -0.000836376566439867, -0.0006142007187008858, -0.0003920244053006172, -0.00016984809190034866, 5.232822149991989e-05, 0.00027450453490018845, 0.000496680848300457, 0.0007188571617007256, 0.0009410334751009941, 0.0011632097885012627, 0.001385385636240244, 0.0016075619496405125, 0.001829738263040781, 0.0020519145764410496, 0.002274090889841318, 0.0024962672032415867, 0.0027184435166418552, 0.0029406193643808365, 0.003162795677781105, 0.0033849719911813736, 0.003607148304581642, 0.0038293246179819107, 0.004051500931382179, 0.004273677244782448, 0.004495853558182716, 0.004718029871582985, 0.0049402061849832535, 0.005162382032722235, 0.005384558346122503, 0.005606734659522772, 0.00582891097292304, 0.006051087286323309, 0.00627326313406229, 0.006495439447462559, 0.006717615760862827, 0.006939792074263096, 0.007161968387663364, 0.007384144701063633]}, "gradients/mlp_extractor.policy_net.6.weight": {"_type": "histogram", "values": [1.0, 0.0, 0.0, 4.0, 3.0, 1.0, 5.0, 7.0, 10.0, 5.0, 11.0, 17.0, 13.0, 17.0, 42.0, 42.0, 61.0, 77.0, 90.0, 123.0, 172.0, 224.0, 341.0, 401.0, 564.0, 748.0, 1055.0, 1502.0, 2236.0, 3041.0, 4064.0, 4918.0, 3541.0, 2533.0, 1903.0, 1264.0, 983.0, 736.0, 517.0, 359.0, 291.0, 205.0, 143.0, 128.0, 94.0, 71.0, 58.0, 41.0, 17.0, 15.0, 12.0, 20.0, 9.0, 9.0, 8.0, 9.0, 0.0, 3.0, 1.0, 0.0, 0.0, 0.0, 1.0, 2.0], "bins": [-0.001830346416682005, -0.0017718678573146462, -0.0017133894143626094, -0.0016549108549952507, -0.001596432295627892, -0.0015379537362605333, -0.0014794752933084965, -0.0014209967339411378, -0.001362518174573779, -0.0013040397316217422, -0.0012455611722543836, -0.0011870826128870249, -0.001128604169934988, -0.0010701256105676293, -0.0010116470512002707, -0.0009531685500405729, -0.0008946900488808751, -0.0008362114895135164, -0.0007777330465614796, -0.0007192544871941209, -0.0006607759278267622, -0.0006022974848747253, -0.0005438189255073667, -0.00048534036614000797, -0.0004268619231879711, -0.00036838336382061243, -0.00030990480445325375, -0.00025142624508589506, -0.0001929478021338582, -0.00013446924276649952, -7.599068339914083e-05, -1.7512240447103977e-05, 4.0966435335576534e-05, 9.944499470293522e-05, 0.00015792343765497208, 0.00021640199702233076, 0.00027488055638968945, 0.0003333589993417263, 0.000391837558709085, 0.00045031611807644367, 0.0005087946774438024, 0.0005672731203958392, 0.0006257516797631979, 0.0006842302391305566, 0.0007427086820825934, 0.0008011872414499521, 0.0008596658008173108, 0.0009181442437693477, 0.0009766228031367064, 0.0010351012460887432, 0.0010935799218714237, 0.0011520583648234606, 0.0012105369241908193, 0.001269015483558178, 0.0013274939265102148, 0.0013859724858775735, 0.0014444510452449322, 0.001502929488196969, 0.0015614080475643277, 0.0016198866069316864, 0.0016783650498837233, 0.001736843609251082, 0.0017953221686184406, 0.0018538006115704775, 0.0019122791709378362]}, "gradients/mlp_extractor.policy_net.4.bias": {"_type": "histogram", "values": [2.0, 0.0, 1.0, 0.0, 2.0, 1.0, 1.0, 1.0, 2.0, 1.0, 2.0, 3.0, 3.0, 1.0, 3.0, 2.0, 4.0, 5.0, 8.0, 11.0, 2.0, 7.0, 3.0, 7.0, 6.0, 6.0, 5.0, 11.0, 7.0, 7.0, 2.0, 4.0, 7.0, 8.0, 7.0, 6.0, 4.0, 7.0, 11.0, 9.0, 5.0, 7.0, 5.0, 7.0, 3.0, 3.0, 4.0, 4.0, 5.0, 3.0, 5.0, 4.0, 2.0, 3.0, 2.0, 2.0, 4.0, 2.0, 1.0, 1.0, 0.0, 2.0, 1.0, 2.0], "bins": [-0.007583610713481903, -0.007363422308117151, -0.0071432339027523994, -0.00692304503172636, -0.0067028566263616085, -0.006482668220996857, -0.006262479815632105, -0.006042291410267353, -0.005822102539241314, -0.005601914599537849, -0.00538172572851181, -0.0051615373231470585, -0.004941348917782307, -0.0047211600467562675, -0.004500972107052803, -0.004280783236026764, -0.004060594830662012, -0.0038404064252972603, -0.0036202180199325085, -0.0034000291489064693, -0.0031798407435417175, -0.0029596523381769657, -0.002739463932812214, -0.002519275527447462, -0.0022990871220827103, -0.002078898251056671, -0.0018587098456919193, -0.0016385214403271675, -0.0014183330349624157, -0.0011981446295976639, -0.0009779557585716248, -0.0007577673532068729, -0.0005375789478421211, -0.0003173905424773693, -9.720213711261749e-05, 0.00012298673391342163, 0.00034317513927817345, 0.0005633635446429253, 0.0007835519500076771, 0.001003740355372429, 0.001223929226398468, 0.0014441176317632198, 0.0016643060371279716, 0.0018844944424927235, 0.0021046828478574753, 0.002324871253222227, 0.0025450601242482662, 0.002765248529613018, 0.00298543693497777, 0.0032056253403425217, 0.003425813978537917, 0.003646002383902669, 0.0038661910220980644, 0.004086379427462816, 0.004306567832827568, 0.004526756703853607, 0.004746944643557072, 0.004967133514583111, 0.005187321919947863, 0.0054075103253126144, 0.005627698730677366, 0.005847887136042118, 0.006068076007068157, 0.006288264412432909, 0.006508452817797661]}, "gradients/mlp_extractor.policy_net.4.weight": {"_type": "histogram", "values": [3.0, 1.0, 7.0, 6.0, 7.0, 11.0, 12.0, 27.0, 38.0, 55.0, 69.0, 86.0, 112.0, 143.0, 206.0, 357.0, 430.0, 573.0, 776.0, 1029.0, 1351.0, 1702.0, 2327.0, 3103.0, 3909.0, 5261.0, 7596.0, 10925.0, 16237.0, 19588.0, 15599.0, 10383.0, 7298.0, 5409.0, 3992.0, 2995.0, 2327.0, 1776.0, 1360.0, 1002.0, 813.0, 584.0, 414.0, 313.0, 221.0, 200.0, 135.0, 87.0, 51.0, 39.0, 36.0, 21.0, 19.0, 18.0, 5.0, 11.0, 10.0, 4.0, 0.0, 0.0, 1.0, 1.0, 0.0, 1.0], "bins": [-0.0008274837164208293, -0.0007993822800926864, -0.0007712808437645435, -0.0007431794074364007, -0.0007150779711082578, -0.0006869765347801149, -0.000658875098451972, -0.00063077372033149, -0.0006026722257956862, -0.0005745708476752043, -0.0005464693531394005, -0.0005183679750189185, -0.0004902665386907756, -0.00046216510236263275, -0.00043406366603448987, -0.000405962229706347, -0.0003778607933782041, -0.0003497593570500612, -0.00032165792072191834, -0.00029355648439377546, -0.0002654550480656326, -0.0002373536117374897, -0.00020925217540934682, -0.00018115073908120394, -0.00015304936096072197, -0.0001249479246325791, -9.684648830443621e-05, -6.874505197629333e-05, -4.0643615648150444e-05, -1.2542179320007563e-05, 1.555925700813532e-05, 4.36606933362782e-05, 7.176212966442108e-05, 9.986356599256396e-05, 0.00012796500232070684, 0.00015606643864884973, 0.0001841678749769926, 0.0002122693113051355, 0.00024037074763327837, 0.00026847218396142125, 0.00029657362028956413, 0.0003246749984100461, 0.000352776434738189, 0.00038087787106633186, 0.00040897930739447474, 0.0004370807437226176, 0.0004651821800507605, 0.0004932836163789034, 0.0005213850527070463, 0.0005494864890351892, 0.000577587925363332, 0.0006056893616914749, 0.0006337907980196178, 0.0006618922343477607, 0.0006899936124682426, 0.0007180951070040464, 0.0007461964851245284, 0.0007742979796603322, 0.0008023993577808142, 0.000830500794108957, 0.0008586022304370999, 0.0008867036667652428, 0.0009148051030933857, 0.0009429065394215286, 0.0009710079757496715]}, "gradients/mlp_extractor.policy_net.2.bias": {"_type": "histogram", "values": [1.0, 0.0, 0.0, 0.0, 0.0, 0.0, 0.0, 1.0, 0.0, 0.0, 1.0, 1.0, 3.0, 3.0, 2.0, 3.0, 5.0, 4.0, 9.0, 9.0, 4.0, 14.0, 15.0, 18.0, 16.0, 18.0, 15.0, 17.0, 21.0, 31.0, 24.0, 20.0, 18.0, 24.0, 19.0, 23.0, 20.0, 21.0, 14.0, 26.0, 17.0, 9.0, 12.0, 9.0, 10.0, 8.0, 6.0, 2.0, 6.0, 2.0, 3.0, 2.0, 1.0, 2.0, 0.0, 1.0, 1.0, 0.0, 0.0, 0.0, 0.0, 0.0, 0.0, 1.0], "bins": [-0.013005584478378296, -0.012598413974046707, -0.012191244401037693, -0.011784073896706104, -0.01137690432369709, -0.010969733819365501, -0.010562563315033913, -0.010155392810702324, -0.00974822323769331, -0.009341053664684296, -0.008933883160352707, -0.008526712656021118, -0.00811954215168953, -0.007712372578680515, -0.0073052020743489265, -0.006898032035678625, -0.006490861997008324, -0.006083691958338022, -0.005676521919667721, -0.005269351415336132, -0.004862181842327118, -0.004455011337995529, -0.00404784083366394, -0.0036406712606549263, -0.0032335007563233376, -0.002826330251991749, -0.0024191606789827347, -0.002011990174651146, -0.0016048196703195572, -0.001197650097310543, -0.0007904795929789543, -0.0003833100199699402, 2.3861415684223175e-05, 0.0004310319200158119, 0.000838201493024826, 0.0012453719973564148, 0.001652541570365429, 0.0020597120746970177, 0.0024668825790286064, 0.0028740521520376205, 0.0032812226563692093, 0.003688393160700798, 0.004095562733709812, 0.004502733238041401, 0.00490990374237299, 0.005317073315382004, 0.0057242438197135925, 0.006131413858383894, 0.006538583897054195, 0.006945753935724497, 0.007352923974394798, 0.007760094478726387, 0.008167264983057976, 0.00857443455606699, 0.008981605060398579, 0.009388774633407593, 0.009795945137739182, 0.01020311564207077, 0.010610285215079784, 0.011017455719411373, 0.011424625292420387, 0.011831795796751976, 0.012238966301083565, 0.012646135874092579, 0.013053306378424168]}, "gradients/mlp_extractor.policy_net.2.weight": {"_type": "histogram", "values": [2.0, 0.0, 3.0, 0.0, 3.0, 3.0, 5.0, 3.0, 5.0, 9.0, 13.0, 21.0, 20.0, 44.0, 57.0, 74.0, 120.0, 140.0, 199.0, 309.0, 434.0, 621.0, 974.0, 1403.0, 2149.0, 3266.0, 5233.0, 8264.0, 13383.0, 23305.0, 43513.0, 62139.0, 40162.0, 21716.0, 12541.0, 7744.0, 4852.0, 3136.0, 2057.0, 1324.0, 883.0, 603.0, 421.0, 294.0, 190.0, 153.0, 107.0, 75.0, 51.0, 38.0, 31.0, 14.0, 8.0, 6.0, 4.0, 5.0, 3.0, 2.0, 4.0, 4.0, 0.0, 1.0, 0.0, 1.0], "bins": [-0.0010589619632810354, -0.0010252719512209296, -0.0009915819391608238, -0.000957891927100718, -0.0009242019150406122, -0.0008905119029805064, -0.0008568218327127397, -0.0008231318206526339, -0.0007894418085925281, -0.0007557517965324223, -0.0007220617844723165, -0.0006883717142045498, -0.000654681702144444, -0.0006209916900843382, -0.0005873016780242324, -0.0005536116659641266, -0.0005199216539040208, -0.000486231641843915, -0.0004525416297838092, -0.0004188516177237034, -0.0003851616056635976, -0.00035147153539583087, -0.00031778152333572507, -0.00028409151127561927, -0.00025040149921551347, -0.00021671148715540767, -0.00018302147509530187, -0.00014933146303519607, -0.00011564139276742935, -8.195138070732355e-05, -4.826136864721775e-05, -1.457135658711195e-05, 1.9118771888315678e-05, 5.280878394842148e-05, 8.649879600852728e-05, 0.00012018880806863308, 0.00015387882012873888, 0.0001875688903965056, 0.0002212589024566114, 0.0002549489145167172, 0.000288638926576823, 0.0003223289386369288, 0.0003560189506970346, 0.0003897089627571404, 0.0004233990330249071, 0.0004570890450850129, 0.0004907790571451187, 0.0005244690692052245, 0.0005581590812653303, 0.0005918490933254361, 0.0006255391053855419, 0.0006592291174456477, 0.0006929191295057535, 0.0007266091415658593, 0.000760299211833626, 0.0007939892238937318, 0.0008276792359538376, 0.0008613692480139434, 0.0008950592600740492, 0.000928749330341816, 0.0009624393424019217, 0.0009961293544620275, 0.0010298193665221334, 0.0010635093785822392, 0.001097199390642345]}, "gradients/mlp_extractor.policy_net.0.bias": {"_type": "histogram", "values": [1.0, 0.0, 0.0, 1.0, 0.0, 0.0, 1.0, 0.0, 0.0, 3.0, 2.0, 2.0, 4.0, 6.0, 8.0, 7.0, 12.0, 6.0, 7.0, 9.0, 17.0, 17.0, 16.0, 13.0, 18.0, 21.0, 21.0, 23.0, 22.0, 27.0, 32.0, 31.0, 18.0, 21.0, 16.0, 17.0, 14.0, 19.0, 10.0, 9.0, 10.0, 12.0, 11.0, 4.0, 3.0, 5.0, 4.0, 4.0, 1.0, 2.0, 0.0, 2.0, 0.0, 2.0, 0.0, 0.0, 0.0, 0.0, 0.0, 0.0, 0.0, 0.0, 0.0, 1.0], "bins": [-0.022309785708785057, -0.021554898470640182, -0.02080000936985016, -0.020045122131705284, -0.01929023489356041, -0.018535345792770386, -0.01778045855462551, -0.017025571316480637, -0.016270682215690613, -0.015515794046223164, -0.014760905876755714, -0.01400601863861084, -0.01325113046914339, -0.012496242299675941, -0.011741355061531067, -0.010986466892063618, -0.010231578722596169, -0.00947669055312872, -0.00872180238366127, -0.007966915145516396, -0.007212026976048946, -0.006457138806581497, -0.005702251568436623, -0.004947362467646599, -0.004192475229501724, -0.0034375879913568497, -0.002682698890566826, -0.0019278116524219513, -0.0011729244142770767, -0.0004180353134870529, 0.00033685192465782166, 0.0010917410254478455, 0.0018466264009475708, 0.0026015136390924454, 0.003356402739882469, 0.004111289978027344, 0.0048661790788173676, 0.005621066316962242, 0.006375953555107117, 0.0071308426558971405, 0.007885729894042015, 0.00864061713218689, 0.009395506232976913, 0.010150393471121788, 0.010905281640589237, 0.011660169810056686, 0.012415057048201561, 0.01316994521766901, 0.01392483338713646, 0.014679721556603909, 0.015434609726071358, 0.016189496964216232, 0.016944386065006256, 0.01769927330315113, 0.018454160541296005, 0.01920904964208603, 0.019963936880230904, 0.020718824118375778, 0.021473713219165802, 0.022228600457310677, 0.02298348769545555, 0.023738376796245575, 0.02449326403439045, 0.025248153135180473, 0.026003040373325348]}, "gradients/mlp_extractor.policy_net.0.weight": {"_type": "histogram", "values": [1.0, 0.0, 0.0, 0.0, 0.0, 0.0, 0.0, 0.0, 0.0, 1.0, 0.0, 1.0, 2.0, 0.0, 2.0, 1.0, 6.0, 4.0, 4.0, 7.0, 7.0, 9.0, 17.0, 14.0, 20.0, 20.0, 28.0, 45.0, 45.0, 65.0, 81.0, 162.0, 250.0, 609.0, 1400.0, 1757.0, 691.0, 324.0, 156.0, 106.0, 68.0, 47.0, 40.0, 32.0, 22.0, 22.0, 14.0, 12.0, 10.0, 9.0, 6.0, 7.0, 5.0, 4.0, 6.0, 2.0, 0.0, 0.0, 0.0, 1.0, 0.0, 0.0, 1.0, 1.0], "bins": [-0.010502226650714874, -0.010202956385910511, -0.009903685189783573, -0.00960441492497921, -0.009305143728852272, -0.009005873464047909, -0.008706603199243546, -0.008407332003116608, -0.008108061738312244, -0.007808791007846594, -0.007509520277380943, -0.00721025001257658, -0.0069109792821109295, -0.006611708551645279, -0.006312438286840916, -0.006013167556375265, -0.0057138968259096146, -0.005414626095443964, -0.0051153553649783134, -0.00481608510017395, -0.0045168143697083, -0.004217543639242649, -0.003918273374438286, -0.0036190026439726353, -0.0033197319135069847, -0.003020461183041334, -0.0027211904525756836, -0.0024219201877713203, -0.002122649922966957, -0.0018233787268400192, -0.001524108462035656, -0.0012248372659087181, -0.0009255679324269295, -0.0006262976676225662, -0.00032702647149562836, -2.7756206691265106e-05, 0.00027151498943567276, 0.000570785254240036, 0.0008700555190443993, 0.0011693262495100498, 0.0014685969799757004, 0.001767867710441351, 0.0020671384409070015, 0.0023664087057113647, 0.0026656794361770153, 0.002964950166642666, 0.003264220431447029, 0.0035634911619126797, 0.0038627618923783302, 0.004162032622843981, 0.004461303353309631, 0.004760573618113995, 0.005059844348579645, 0.005359115079045296, 0.005658385343849659, 0.0059576560743153095, 0.00625692680478096, 0.006556197535246611, 0.006855468265712261, 0.0071547385305166245, 0.007454009260982275, 0.007753279991447926, 0.008052550256252289, 0.008351821452379227, 0.00865109171718359]}, "_runtime": 6361.41742682457, "_step": 0}